FANN_FLO_2.1
num_layers=3
learning_rate=0.250000
connection_rate=1.000000
network_type=0
learning_momentum=0.000000
training_algorithm=2
train_error_function=1
train_stop_function=0
cascade_output_change_fraction=0.010000
quickprop_decay=-0.000100
quickprop_mu=1.750000
rprop_increase_factor=1.200000
rprop_decrease_factor=0.500000
rprop_delta_min=0.000000
rprop_delta_max=50.000000
rprop_delta_zero=0.100000
cascade_output_stagnation_epochs=12
cascade_candidate_change_fraction=0.010000
cascade_candidate_stagnation_epochs=12
cascade_max_out_epochs=150
cascade_min_out_epochs=50
cascade_max_cand_epochs=150
cascade_min_cand_epochs=50
cascade_num_candidate_groups=2
bit_fail_limit=3.49999999999999980000e-001
cascade_candidate_limit=1.00000000000000000000e+003
cascade_weight_multiplier=4.00000000000000020000e-001
cascade_activation_functions_count=10
cascade_activation_functions=3 5 7 8 10 11 14 15 16 17 
cascade_activation_steepnesses_count=4
cascade_activation_steepnesses=2.50000000000000000000e-001 5.00000000000000000000e-001 7.50000000000000000000e-001 1.00000000000000000000e+000 
layer_sizes=8 5 2 
scale_included=0
neurons (num_inputs, activation_function, activation_steepness)=(0, 0, 0.00000000000000000000e+000) (0, 0, 0.00000000000000000000e+000) (0, 0, 0.00000000000000000000e+000) (0, 0, 0.00000000000000000000e+000) (0, 0, 0.00000000000000000000e+000) (0, 0, 0.00000000000000000000e+000) (0, 0, 0.00000000000000000000e+000) (0, 0, 0.00000000000000000000e+000) (8, 4, 5.00000000000000000000e-001) (8, 4, 5.00000000000000000000e-001) (8, 4, 5.00000000000000000000e-001) (8, 4, 5.00000000000000000000e-001) (0, 0, 0.00000000000000000000e+000) (5, 6, 5.00000000000000000000e-001) (0, 6, 0.00000000000000000000e+000) 
connections (connected_to_neuron, weight)=(0, 1.13082868071685280000e+000) (1, 1.10705534718710120000e+000) (2, 1.26287407110388060000e+000) (3, 1.41018908013302390000e+000) (4, 1.50450123083150760000e+000) (5, 7.78989132633602590000e-001) (6, 3.02110983941344410000e+000) (7, 1.98485305606894590000e+000) (0, 8.07041009865578810000e-001) (1, 4.78350689961850260000e-001) (2, 8.48222180385401310000e-001) (3, 1.46251685674425790000e+000) (4, 8.60134551418872180000e-001) (5, 1.26992685657695860000e-001) (6, 1.60299457014296260000e+000) (7, 1.44433430696647000000e+000) (0, 4.37405000744101710000e+000) (1, 4.49906933196121890000e+000) (2, 4.17373758901758670000e+000) (3, 4.09486175410459110000e+000) (4, 4.27121309608501320000e+000) (5, 9.77556506692052270000e+000) (6, 2.90893110374582480000e+000) (7, 3.81486116933376220000e+000) (0, 1.17015536739257310000e+000) (1, 1.39053063582621710000e+000) (2, 1.26064764005070030000e+000) (3, 1.44606389376782010000e+000) (4, 1.58138643198755170000e+000) (5, 3.73453846218841650000e-001) (6, 2.92230573804311740000e+000) (7, 1.90551790808016070000e+000) (8, 1.46420759336484190000e-001) (9, 5.42976978317493920000e-001) (10, -9.17507872775732420000e-002) (11, 3.83649023627818320000e-002) (12, 4.62472791461080330000e-001) 
